Language model created by QuickLM on Tue May  2 22:01:25 EDT 2017
Copyright (c) 1996-2010 Carnegie Mellon University and Alexander I. Rudnicky

The model is in standard ARPA format, designed by Doug Paul while he was at MITRE.

The code that was used to produce this language model is available in Open Source.
Please visit http://www.speech.cs.cmu.edu/tools/ for more information

The (fixed) discount mass is 0.5. The backoffs are computed using the ratio method.
This model based on a corpus of 58 sentences and 59 words

\data\
ngram 1=59
ngram 2=114
ngram 3=57

\1-grams:
-0.7782 </s> -0.3010
-0.7782 <s> -0.2218
-2.5416 AFRAID-YOU -0.2218
-2.5416 ANIMAL -0.2218
-2.5416 AVAILABLE -0.2218
-2.5416 CAPITAL -0.2218
-2.5416 COLOR-OF-CUP -0.2218
-2.5416 COUNTRY -0.2218
-2.5416 DINING -0.2218
-2.5416 DINING-TABLE -0.2218
-2.5416 DOOR -0.2218
-2.5416 DOORS -0.2218
-2.5416 DRINK -0.2218
-2.5416 FAMOUS-FOOD -0.2218
-2.5416 FAMOUS-FOOD-IN-IRAN -0.2218
-2.5416 FIND -0.2218
-2.5416 FIND-DRINK -0.2218
-2.5416 FOOTBALL -0.2218
-2.5416 HEALTHIEST-FRUIT -0.2218
-2.5416 HEAVIEST -0.2218
-2.5416 HEAVIEST-ANIMAL -0.2218
-2.5416 HOW-MANY -0.2218
-2.5416 HOW-MANY-DOORS -0.2218
-2.5416 IN-THIS-ROOM -0.2218
-2.5416 IRAN -0.2218
-2.5416 KAMERIDER -0.2218
-2.5416 LEAGUE-TITLE -0.2218
-2.5416 OBJECT -0.2218
-2.5416 OBJECT-AVAILABLE -0.2218
-2.5416 OBJECT-AVAILABLE-IN-THIS-ROOM -0.2218
-2.5416 PEOPLE -0.2218
-2.5416 PEOPLE-SITTING -0.2218
-2.5416 PEOPLE-WEARING-CAP -0.2218
-2.5416 PEOPLE-WEARING-SPECTACLES -0.2218
-2.5416 PIZZA -0.2218
-2.5416 PLAY-IN-FOOTBALL -0.2218
-2.5416 PLAYERS -0.2218
-2.5416 SITTING -0.2218
-2.5416 THE-CAPITAL-OF -0.2218
-2.5416 THE-COLOR-OF -0.2218
-2.5416 THE-COLOR-OF-CUP -0.2218
-2.5416 THE-COUNTRY-OF -0.2218
-2.5416 THE-COUNTRY-OF-PIZZA -0.2218
-2.5416 THE-DATE -0.2218
-2.5416 THE-HEALTHIEST-FRUIT -0.2218
-2.2405 THE-NAME-OF -0.2218
-2.5416 THIS-EVENT -0.2218
-2.5416 THIS-ROOM -0.2218
-2.5416 THIS-UNIVERSITY -0.2218
-2.5416 TODAY -0.2218
-2.5416 WEARING-CAP -0.2218
-2.5416 WEARING-SPECTACLES -0.2218
-2.5416 WHAT -0.2218
-2.5416 WHAT-IS -0.2218
-2.5416 WHAT-IS-THE-DATE -0.2218
-2.5416 WHERE-IS -0.2218
-2.5416 WHICH -0.2218
-2.5416 WHICH-ANIMAL -0.2218
-2.5416 YOUR -0.2218

\2-grams:
-2.0645 <s> AFRAID-YOU 0.0000
-2.0645 <s> ANIMAL 0.0000
-2.0645 <s> AVAILABLE 0.0000
-2.0645 <s> CAPITAL 0.0000
-2.0645 <s> COLOR-OF-CUP 0.0000
-2.0645 <s> COUNTRY 0.0000
-2.0645 <s> DINING 0.0000
-2.0645 <s> DINING-TABLE 0.0000
-2.0645 <s> DOOR 0.0000
-2.0645 <s> DOORS 0.0000
-2.0645 <s> DRINK 0.0000
-2.0645 <s> FAMOUS-FOOD 0.0000
-2.0645 <s> FAMOUS-FOOD-IN-IRAN 0.0000
-2.0645 <s> FIND 0.0000
-2.0645 <s> FIND-DRINK 0.0000
-2.0645 <s> FOOTBALL 0.0000
-2.0645 <s> HEALTHIEST-FRUIT 0.0000
-2.0645 <s> HEAVIEST 0.0000
-2.0645 <s> HEAVIEST-ANIMAL 0.0000
-2.0645 <s> HOW-MANY 0.0000
-2.0645 <s> HOW-MANY-DOORS 0.0000
-2.0645 <s> IN-THIS-ROOM 0.0000
-2.0645 <s> IRAN 0.0000
-2.0645 <s> KAMERIDER 0.0000
-2.0645 <s> LEAGUE-TITLE 0.0000
-2.0645 <s> OBJECT 0.0000
-2.0645 <s> OBJECT-AVAILABLE 0.0000
-2.0645 <s> OBJECT-AVAILABLE-IN-THIS-ROOM 0.0000
-2.0645 <s> PEOPLE 0.0000
-2.0645 <s> PEOPLE-SITTING 0.0000
-2.0645 <s> PEOPLE-WEARING-CAP 0.0000
-2.0645 <s> PEOPLE-WEARING-SPECTACLES 0.0000
-2.0645 <s> PIZZA 0.0000
-2.0645 <s> PLAY-IN-FOOTBALL 0.0000
-2.0645 <s> PLAYERS 0.0000
-2.0645 <s> SITTING 0.0000
-2.0645 <s> THE-CAPITAL-OF 0.0000
-2.0645 <s> THE-COLOR-OF 0.0000
-2.0645 <s> THE-COLOR-OF-CUP 0.0000
-2.0645 <s> THE-COUNTRY-OF 0.0000
-2.0645 <s> THE-COUNTRY-OF-PIZZA 0.0000
-2.0645 <s> THE-DATE 0.0000
-2.0645 <s> THE-HEALTHIEST-FRUIT 0.0000
-1.7634 <s> THE-NAME-OF 0.0000
-2.0645 <s> THIS-EVENT 0.0000
-2.0645 <s> THIS-ROOM 0.0000
-2.0645 <s> THIS-UNIVERSITY 0.0000
-2.0645 <s> TODAY 0.0000
-2.0645 <s> WEARING-CAP 0.0000
-2.0645 <s> WEARING-SPECTACLES 0.0000
-2.0645 <s> WHAT 0.0000
-2.0645 <s> WHAT-IS 0.0000
-2.0645 <s> WHAT-IS-THE-DATE 0.0000
-2.0645 <s> WHERE-IS 0.0000
-2.0645 <s> WHICH 0.0000
-2.0645 <s> WHICH-ANIMAL 0.0000
-2.0645 <s> YOUR 0.0000
-0.3010 AFRAID-YOU </s> -0.3010
-0.3010 ANIMAL </s> -0.3010
-0.3010 AVAILABLE </s> -0.3010
-0.3010 CAPITAL </s> -0.3010
-0.3010 COLOR-OF-CUP </s> -0.3010
-0.3010 COUNTRY </s> -0.3010
-0.3010 DINING </s> -0.3010
-0.3010 DINING-TABLE </s> -0.3010
-0.3010 DOOR </s> -0.3010
-0.3010 DOORS </s> -0.3010
-0.3010 DRINK </s> -0.3010
-0.3010 FAMOUS-FOOD </s> -0.3010
-0.3010 FAMOUS-FOOD-IN-IRAN </s> -0.3010
-0.3010 FIND </s> -0.3010
-0.3010 FIND-DRINK </s> -0.3010
-0.3010 FOOTBALL </s> -0.3010
-0.3010 HEALTHIEST-FRUIT </s> -0.3010
-0.3010 HEAVIEST </s> -0.3010
-0.3010 HEAVIEST-ANIMAL </s> -0.3010
-0.3010 HOW-MANY </s> -0.3010
-0.3010 HOW-MANY-DOORS </s> -0.3010
-0.3010 IN-THIS-ROOM </s> -0.3010
-0.3010 IRAN </s> -0.3010
-0.3010 KAMERIDER </s> -0.3010
-0.3010 LEAGUE-TITLE </s> -0.3010
-0.3010 OBJECT </s> -0.3010
-0.3010 OBJECT-AVAILABLE </s> -0.3010
-0.3010 OBJECT-AVAILABLE-IN-THIS-ROOM </s> -0.3010
-0.3010 PEOPLE </s> -0.3010
-0.3010 PEOPLE-SITTING </s> -0.3010
-0.3010 PEOPLE-WEARING-CAP </s> -0.3010
-0.3010 PEOPLE-WEARING-SPECTACLES </s> -0.3010
-0.3010 PIZZA </s> -0.3010
-0.3010 PLAY-IN-FOOTBALL </s> -0.3010
-0.3010 PLAYERS </s> -0.3010
-0.3010 SITTING </s> -0.3010
-0.3010 THE-CAPITAL-OF </s> -0.3010
-0.3010 THE-COLOR-OF </s> -0.3010
-0.3010 THE-COLOR-OF-CUP </s> -0.3010
-0.3010 THE-COUNTRY-OF </s> -0.3010
-0.3010 THE-COUNTRY-OF-PIZZA </s> -0.3010
-0.3010 THE-DATE </s> -0.3010
-0.3010 THE-HEALTHIEST-FRUIT </s> -0.3010
-0.3010 THE-NAME-OF </s> -0.3010
-0.3010 THIS-EVENT </s> -0.3010
-0.3010 THIS-ROOM </s> -0.3010
-0.3010 THIS-UNIVERSITY </s> -0.3010
-0.3010 TODAY </s> -0.3010
-0.3010 WEARING-CAP </s> -0.3010
-0.3010 WEARING-SPECTACLES </s> -0.3010
-0.3010 WHAT </s> -0.3010
-0.3010 WHAT-IS </s> -0.3010
-0.3010 WHAT-IS-THE-DATE </s> -0.3010
-0.3010 WHERE-IS </s> -0.3010
-0.3010 WHICH </s> -0.3010
-0.3010 WHICH-ANIMAL </s> -0.3010
-0.3010 YOUR </s> -0.3010

\3-grams:
-0.3010 <s> AFRAID-YOU </s>
-0.3010 <s> ANIMAL </s>
-0.3010 <s> AVAILABLE </s>
-0.3010 <s> CAPITAL </s>
-0.3010 <s> COLOR-OF-CUP </s>
-0.3010 <s> COUNTRY </s>
-0.3010 <s> DINING </s>
-0.3010 <s> DINING-TABLE </s>
-0.3010 <s> DOOR </s>
-0.3010 <s> DOORS </s>
-0.3010 <s> DRINK </s>
-0.3010 <s> FAMOUS-FOOD </s>
-0.3010 <s> FAMOUS-FOOD-IN-IRAN </s>
-0.3010 <s> FIND </s>
-0.3010 <s> FIND-DRINK </s>
-0.3010 <s> FOOTBALL </s>
-0.3010 <s> HEALTHIEST-FRUIT </s>
-0.3010 <s> HEAVIEST </s>
-0.3010 <s> HEAVIEST-ANIMAL </s>
-0.3010 <s> HOW-MANY </s>
-0.3010 <s> HOW-MANY-DOORS </s>
-0.3010 <s> IN-THIS-ROOM </s>
-0.3010 <s> IRAN </s>
-0.3010 <s> KAMERIDER </s>
-0.3010 <s> LEAGUE-TITLE </s>
-0.3010 <s> OBJECT </s>
-0.3010 <s> OBJECT-AVAILABLE </s>
-0.3010 <s> OBJECT-AVAILABLE-IN-THIS-ROOM </s>
-0.3010 <s> PEOPLE </s>
-0.3010 <s> PEOPLE-SITTING </s>
-0.3010 <s> PEOPLE-WEARING-CAP </s>
-0.3010 <s> PEOPLE-WEARING-SPECTACLES </s>
-0.3010 <s> PIZZA </s>
-0.3010 <s> PLAY-IN-FOOTBALL </s>
-0.3010 <s> PLAYERS </s>
-0.3010 <s> SITTING </s>
-0.3010 <s> THE-CAPITAL-OF </s>
-0.3010 <s> THE-COLOR-OF </s>
-0.3010 <s> THE-COLOR-OF-CUP </s>
-0.3010 <s> THE-COUNTRY-OF </s>
-0.3010 <s> THE-COUNTRY-OF-PIZZA </s>
-0.3010 <s> THE-DATE </s>
-0.3010 <s> THE-HEALTHIEST-FRUIT </s>
-0.3010 <s> THE-NAME-OF </s>
-0.3010 <s> THIS-EVENT </s>
-0.3010 <s> THIS-ROOM </s>
-0.3010 <s> THIS-UNIVERSITY </s>
-0.3010 <s> TODAY </s>
-0.3010 <s> WEARING-CAP </s>
-0.3010 <s> WEARING-SPECTACLES </s>
-0.3010 <s> WHAT </s>
-0.3010 <s> WHAT-IS </s>
-0.3010 <s> WHAT-IS-THE-DATE </s>
-0.3010 <s> WHERE-IS </s>
-0.3010 <s> WHICH </s>
-0.3010 <s> WHICH-ANIMAL </s>
-0.3010 <s> YOUR </s>

\end\
