Language model created by QuickLM on Wed May  3 10:41:08 EDT 2017
Copyright (c) 1996-2010 Carnegie Mellon University and Alexander I. Rudnicky

The model is in standard ARPA format, designed by Doug Paul while he was at MITRE.

The code that was used to produce this language model is available in Open Source.
Please visit http://www.speech.cs.cmu.edu/tools/ for more information

The (fixed) discount mass is 0.5. The backoffs are computed using the ratio method.
This model based on a corpus of 4 sentences and 6 words

\data\
ngram 1=6
ngram 2=8
ngram 3=4

\1-grams:
-0.7782 </s> -0.3010
-0.7782 <s> -0.2218
-1.3802 FOLLOW-ME -0.2218
-1.3802 JACK -0.2218
-1.3802 LIVING-ROOM -0.2218
-1.3802 STOP -0.2218

\2-grams:
-0.9031 <s> FOLLOW-ME 0.0000
-0.9031 <s> JACK 0.0000
-0.9031 <s> LIVING-ROOM 0.0000
-0.9031 <s> STOP 0.0000
-0.3010 FOLLOW-ME </s> -0.3010
-0.3010 JACK </s> -0.3010
-0.3010 LIVING-ROOM </s> -0.3010
-0.3010 STOP </s> -0.3010

\3-grams:
-0.3010 <s> FOLLOW-ME </s>
-0.3010 <s> JACK </s>
-0.3010 <s> LIVING-ROOM </s>
-0.3010 <s> STOP </s>

\end\
