Language model created by QuickLM on Wed May  3 12:16:08 EDT 2017
Copyright (c) 1996-2010 Carnegie Mellon University and Alexander I. Rudnicky

The model is in standard ARPA format, designed by Doug Paul while he was at MITRE.

The code that was used to produce this language model is available in Open Source.
Please visit http://www.speech.cs.cmu.edu/tools/ for more information

The (fixed) discount mass is 0.5. The backoffs are computed using the ratio method.
This model based on a corpus of 12 sentences and 14 words

\data\
ngram 1=14
ngram 2=24
ngram 3=12

\1-grams:
-0.7782 </s> -0.3010
-0.7782 <s> -0.2218
-1.8573 BRING -0.2218
-1.8573 FOLLOW-ME -0.2218
-1.8573 JACK -0.2218
-1.8573 KAMERIDER -0.2218
-1.8573 LIVING-ROOM -0.2218
-1.8573 STOP -0.2218
-1.8573 STOP-FOLLOWING -0.2218
-1.8573 STOP-FOLLOWING-ME -0.2218
-1.8573 TAKE -0.2218
-1.8573 THE-LIVING-ROOM -0.2218
-1.8573 TO-LIVING-ROOM -0.2218
-1.8573 TO-THE-LIVING-ROOM -0.2218

\2-grams:
-1.3802 <s> BRING 0.0000
-1.3802 <s> FOLLOW-ME 0.0000
-1.3802 <s> JACK 0.0000
-1.3802 <s> KAMERIDER 0.0000
-1.3802 <s> LIVING-ROOM 0.0000
-1.3802 <s> STOP 0.0000
-1.3802 <s> STOP-FOLLOWING 0.0000
-1.3802 <s> STOP-FOLLOWING-ME 0.0000
-1.3802 <s> TAKE 0.0000
-1.3802 <s> THE-LIVING-ROOM 0.0000
-1.3802 <s> TO-LIVING-ROOM 0.0000
-1.3802 <s> TO-THE-LIVING-ROOM 0.0000
-0.3010 BRING </s> -0.3010
-0.3010 FOLLOW-ME </s> -0.3010
-0.3010 JACK </s> -0.3010
-0.3010 KAMERIDER </s> -0.3010
-0.3010 LIVING-ROOM </s> -0.3010
-0.3010 STOP </s> -0.3010
-0.3010 STOP-FOLLOWING </s> -0.3010
-0.3010 STOP-FOLLOWING-ME </s> -0.3010
-0.3010 TAKE </s> -0.3010
-0.3010 THE-LIVING-ROOM </s> -0.3010
-0.3010 TO-LIVING-ROOM </s> -0.3010
-0.3010 TO-THE-LIVING-ROOM </s> -0.3010

\3-grams:
-0.3010 <s> BRING </s>
-0.3010 <s> FOLLOW-ME </s>
-0.3010 <s> JACK </s>
-0.3010 <s> KAMERIDER </s>
-0.3010 <s> LIVING-ROOM </s>
-0.3010 <s> STOP </s>
-0.3010 <s> STOP-FOLLOWING </s>
-0.3010 <s> STOP-FOLLOWING-ME </s>
-0.3010 <s> TAKE </s>
-0.3010 <s> THE-LIVING-ROOM </s>
-0.3010 <s> TO-LIVING-ROOM </s>
-0.3010 <s> TO-THE-LIVING-ROOM </s>

\end\
