Language model created by QuickLM on Mon Apr  4 12:51:53 EDT 2016
Copyright (c) 1996-2010 Carnegie Mellon University and Alexander I. Rudnicky

The model is in standard ARPA format, designed by Doug Paul while he was at MITRE.

The code that was used to produce this language model is available in Open Source.
Please visit http://www.speech.cs.cmu.edu/tools/ for more information

The (fixed) discount mass is 0.5. The backoffs are computed using the ratio method.
This model based on a corpus of 45 sentences and 45 words

\data\
ngram 1=45
ngram 2=90
ngram 3=80

\1-grams:
-0.8783 </s> -0.3010
-0.8783 <s> -0.2319
-2.5315 ABORT -0.2394
-2.2304 BACK -0.2394
-2.0544 BACKWARD -0.2394
-2.2304 CAMERA -0.2394
-2.5315 CANCEL -0.2394
-1.9294 COME -0.2801
-2.5315 CONTINUE -0.2985
-2.2304 DOWN -0.2394
-2.5315 FASTER -0.2394
-2.0544 FORWARD -0.2394
-2.5315 FREEZE -0.2394
-2.5315 FULL -0.2959
-1.7533 GO -0.2761
-2.5315 HALF -0.2959
-2.5315 HALT -0.2394
-2.5315 HELLO -0.2394
-2.2304 HELP -0.2379
-2.5315 IS -0.2998
-2.5315 IT -0.2394
-2.5315 KILL -0.2394
-1.8325 LEFT -0.2394
-2.5315 ME -0.2394
-1.8325 MOVE -0.2774
-2.5315 NOW -0.2394
-2.5315 OFF -0.2394
-2.5315 PANIC -0.2394
-2.5315 PAUSE -0.2985
-2.5315 QUARTER -0.2959
-1.8325 RIGHT -0.2394
-2.2304 ROTATE -0.2881
-2.5315 SAY -0.2998
-2.5315 SHUT -0.2985
-2.5315 SLOW -0.2985
-2.5315 SLOWER -0.2394
-2.2304 SPEECH -0.2394
-1.9294 SPEED -0.2379
-2.5315 START -0.2985
-2.2304 STOP -0.2379
-2.5315 STRAIGHT -0.2394
-2.2304 TIME -0.2379
-2.0544 TURN -0.2867
-2.5315 UP -0.2394
-2.5315 WHAT -0.2985

\2-grams:
-1.9542 <s> ABORT 0.0000
-1.9542 <s> CAMERA 0.0000
-1.9542 <s> CANCEL 0.0000
-1.3522 <s> COME 0.0000
-1.9542 <s> CONTINUE 0.0000
-1.9542 <s> FASTER 0.0000
-1.9542 <s> FREEZE 0.0000
-1.9542 <s> FULL 0.0000
-1.1761 <s> GO 0.0000
-1.9542 <s> HALF 0.0000
-1.9542 <s> HALT 0.0000
-1.6532 <s> HELP 0.0000
-1.9542 <s> KILL 0.0000
-1.2553 <s> MOVE 0.0000
-1.9542 <s> PANIC 0.0000
-1.9542 <s> PAUSE 0.0000
-1.9542 <s> QUARTER 0.0000
-1.6532 <s> ROTATE 0.0000
-1.9542 <s> SAY 0.0000
-1.9542 <s> SHUT 0.0000
-1.9542 <s> SLOW 0.0000
-1.9542 <s> SLOWER 0.0000
-1.9542 <s> SPEED -0.2430
-1.9542 <s> START 0.0000
-1.6532 <s> STOP 0.0000
-1.9542 <s> TIME -0.1761
-1.4771 <s> TURN 0.0000
-1.9542 <s> WHAT 0.0000
-0.3010 ABORT </s> -0.3010
-0.3010 BACK </s> -0.3010
-0.3010 BACKWARD </s> -0.3010
-0.3010 CAMERA </s> -0.3010
-0.3010 CANCEL </s> -0.3010
-0.9031 COME BACKWARD 0.0000
-0.9031 COME FORWARD 0.0000
-0.9031 COME LEFT 0.0000
-0.9031 COME RIGHT 0.0000
-0.3010 CONTINUE SPEECH 0.0000
-0.3010 DOWN </s> -0.3010
-0.3010 FASTER </s> -0.3010
-0.3010 FORWARD </s> -0.3010
-0.3010 FREEZE </s> -0.3010
-0.3010 FULL SPEED -0.0969
-1.0792 GO BACK 0.0000
-1.0792 GO BACKWARD 0.0000
-1.0792 GO FORWARD 0.0000
-1.0792 GO LEFT 0.0000
-1.0792 GO RIGHT 0.0000
-1.0792 GO STRAIGHT 0.0000
-0.3010 HALF SPEED -0.0969
-0.3010 HALT </s> -0.3010
-0.3010 HELLO </s> -0.3010
-0.6021 HELP </s> -0.3010
-0.6021 HELP ME 0.0000
-0.3010 IS IT 0.0000
-0.3010 IT </s> -0.3010
-0.3010 KILL </s> -0.3010
-0.3010 LEFT </s> -0.3010
-0.3010 ME </s> -0.3010
-1.0000 MOVE BACK 0.0000
-1.0000 MOVE BACKWARD 0.0000
-1.0000 MOVE FORWARD 0.0000
-1.0000 MOVE LEFT 0.0000
-1.0000 MOVE RIGHT 0.0000
-0.3010 NOW </s> -0.3010
-0.3010 OFF </s> -0.3010
-0.3010 PANIC </s> -0.3010
-0.3010 PAUSE SPEECH 0.0000
-0.3010 QUARTER SPEED -0.0969
-0.3010 RIGHT </s> -0.3010
-0.6021 ROTATE LEFT 0.0000
-0.6021 ROTATE RIGHT 0.0000
-0.3010 SAY HELLO 0.0000
-0.3010 SHUT DOWN 0.0000
-0.3010 SLOW DOWN 0.0000
-0.3010 SLOWER </s> -0.3010
-0.3010 SPEECH </s> -0.3010
-0.4260 SPEED </s> -0.3010
-0.9031 SPEED UP 0.0000
-0.3010 START CAMERA 0.0000
-0.6021 STOP </s> -0.3010
-0.6021 STOP NOW 0.0000
-0.3010 STRAIGHT </s> -0.3010
-0.6021 TIME </s> -0.3010
-0.6021 TIME IS 0.0000
-0.7782 TURN LEFT 0.0000
-0.7782 TURN OFF 0.0000
-0.7782 TURN RIGHT 0.0000
-0.3010 UP </s> -0.3010
-0.3010 WHAT TIME -0.1761

\3-grams:
-0.3010 <s> ABORT </s>
-0.3010 <s> CAMERA </s>
-0.3010 <s> CANCEL </s>
-0.9031 <s> COME BACKWARD
-0.9031 <s> COME FORWARD
-0.9031 <s> COME LEFT
-0.9031 <s> COME RIGHT
-0.3010 <s> CONTINUE SPEECH
-0.3010 <s> FASTER </s>
-0.3010 <s> FREEZE </s>
-0.3010 <s> FULL SPEED
-1.0792 <s> GO BACK
-1.0792 <s> GO BACKWARD
-1.0792 <s> GO FORWARD
-1.0792 <s> GO LEFT
-1.0792 <s> GO RIGHT
-1.0792 <s> GO STRAIGHT
-0.3010 <s> HALF SPEED
-0.3010 <s> HALT </s>
-0.6021 <s> HELP </s>
-0.6021 <s> HELP ME
-0.3010 <s> KILL </s>
-1.0000 <s> MOVE BACK
-1.0000 <s> MOVE BACKWARD
-1.0000 <s> MOVE FORWARD
-1.0000 <s> MOVE LEFT
-1.0000 <s> MOVE RIGHT
-0.3010 <s> PANIC </s>
-0.3010 <s> PAUSE SPEECH
-0.3010 <s> QUARTER SPEED
-0.6021 <s> ROTATE LEFT
-0.6021 <s> ROTATE RIGHT
-0.3010 <s> SAY HELLO
-0.3010 <s> SHUT DOWN
-0.3010 <s> SLOW DOWN
-0.3010 <s> SLOWER </s>
-0.3010 <s> SPEED UP
-0.3010 <s> START CAMERA
-0.6021 <s> STOP </s>
-0.6021 <s> STOP NOW
-0.3010 <s> TIME </s>
-0.7782 <s> TURN LEFT
-0.7782 <s> TURN OFF
-0.7782 <s> TURN RIGHT
-0.3010 <s> WHAT TIME
-0.3010 COME BACKWARD </s>
-0.3010 COME FORWARD </s>
-0.3010 COME LEFT </s>
-0.3010 COME RIGHT </s>
-0.3010 CONTINUE SPEECH </s>
-0.3010 FULL SPEED </s>
-0.3010 GO BACK </s>
-0.3010 GO BACKWARD </s>
-0.3010 GO FORWARD </s>
-0.3010 GO LEFT </s>
-0.3010 GO RIGHT </s>
-0.3010 GO STRAIGHT </s>
-0.3010 HALF SPEED </s>
-0.3010 HELP ME </s>
-0.3010 IS IT </s>
-0.3010 MOVE BACK </s>
-0.3010 MOVE BACKWARD </s>
-0.3010 MOVE FORWARD </s>
-0.3010 MOVE LEFT </s>
-0.3010 MOVE RIGHT </s>
-0.3010 PAUSE SPEECH </s>
-0.3010 QUARTER SPEED </s>
-0.3010 ROTATE LEFT </s>
-0.3010 ROTATE RIGHT </s>
-0.3010 SAY HELLO </s>
-0.3010 SHUT DOWN </s>
-0.3010 SLOW DOWN </s>
-0.3010 SPEED UP </s>
-0.3010 START CAMERA </s>
-0.3010 STOP NOW </s>
-0.3010 TIME IS IT
-0.3010 TURN LEFT </s>
-0.3010 TURN OFF </s>
-0.3010 TURN RIGHT </s>
-0.3010 WHAT TIME IS

\end\
